{"graph_0": {"_type": "graph-file", "path": "media/graph/graph_0_summary_6370eaba.graph.json", "sha256": "6370eaba158dfd438cd7d93223358f73aa84126ddb8c4ed9d70375348dbc4c13", "size": 634}, "_step": 1499, "epoch": 2, "_timestamp": 1583121075.5223243, "loss": 2.1061298847198486, "_runtime": 694.8687882423401, "gradients/fc1.weight": {"_type": "histogram", "values": [1.0, 0.0, 3.0, 2.0, 3.0, 9.0, 11.0, 19.0, 20.0, 38.0, 62.0, 125.0, 164.0, 189.0, 207.0, 319.0, 359.0, 449.0, 532.0, 670.0, 751.0, 973.0, 1145.0, 1133.0, 1382.0, 1911.0, 2012.0, 1990.0, 2513.0, 5297.0, 9590.0, 32766.0, 1433774.0, 10282.0, 5296.0, 4552.0, 4144.0, 2823.0, 2011.0, 1448.0, 1103.0, 920.0, 539.0, 408.0, 328.0, 303.0, 217.0, 197.0, 189.0, 193.0, 177.0, 222.0, 268.0, 362.0, 414.0, 359.0, 282.0, 182.0, 175.0, 102.0, 41.0, 33.0, 8.0, 3.0], "bins": [-0.5507553219795227, -0.5336663722991943, -0.5165773630142212, -0.4994884133338928, -0.48239943385124207, -0.4653104543685913, -0.44822150468826294, -0.4311325252056122, -0.4140435457229614, -0.39695456624031067, -0.3798655867576599, -0.36277663707733154, -0.3456876575946808, -0.32859867811203003, -0.31150972843170166, -0.2944207489490509, -0.27733176946640015, -0.2602427899837494, -0.24315381050109863, -0.22606486082077026, -0.2089758813381195, -0.19188690185546875, -0.17479795217514038, -0.15770897269248962, -0.14061999320983887, -0.12353101372718811, -0.10644203424453735, -0.08935308456420898, -0.07226410508155823, -0.05517512559890747, -0.0380861759185791, -0.020997166633605957, -0.003908216953277588, 0.013180732727050781, 0.030269742012023926, 0.047358691692352295, 0.06444770097732544, 0.08153665065765381, 0.09862560033798218, 0.11571460962295532, 0.1328035593032837, 0.14989250898361206, 0.1669815182685852, 0.18407046794891357, 0.20115941762924194, 0.2182484269142151, 0.23533737659454346, 0.2524263858795166, 0.26951533555984497, 0.28660428524017334, 0.3036932945251465, 0.32078224420547485, 0.337871253490448, 0.35496020317077637, 0.37204915285110474, 0.3891381621360779, 0.40622711181640625, 0.4233160614967346, 0.44040507078170776, 0.4574940800666809, 0.4745829701423645, 0.49167197942733765, 0.5087609887123108, 0.5258498787879944, 0.5429388880729675]}, "gradients/fc1.bias": {"_type": "histogram", "values": [1.0, 0.0, 0.0, 0.0, 1.0, 1.0, 0.0, 1.0, 0.0, 0.0, 1.0, 1.0, 1.0, 1.0, 1.0, 0.0, 1.0, 1.0, 1.0, 4.0, 5.0, 5.0, 446.0, 5.0, 1.0, 6.0, 2.0, 2.0, 3.0, 1.0, 1.0, 1.0, 1.0, 0.0, 0.0, 1.0, 0.0, 1.0, 0.0, 1.0, 0.0, 0.0, 0.0, 0.0, 1.0, 0.0, 0.0, 0.0, 0.0, 0.0, 0.0, 0.0, 0.0, 0.0, 0.0, 0.0, 0.0, 0.0, 0.0, 0.0, 0.0, 0.0, 0.0, 1.0], "bins": [-0.0013368710642680526, -0.0012786455918103456, -0.0012204201193526387, -0.0011621946468949318, -0.001103969058021903, -0.001045743701979518, -0.0009875181131064892, -0.0009292926406487823, -0.0008710671681910753, -0.0008128416957333684, -0.0007546162232756615, -0.0006963906926102936, -0.0006381652201525867, -0.0005799397476948798, -0.0005217142170295119, -0.000463488744571805, -0.00040526327211409807, -0.00034703779965639114, -0.0002888123271986842, -0.0002305868547409773, -0.00017236138228327036, -0.0001141357934102416, -5.5910320952534676e-05, 2.3151515051722527e-06, 6.054062396287918e-05, 0.00011876609642058611, 0.00017699156887829304, 0.00023521704133599997, 0.0002934426302090287, 0.00035166810266673565, 0.0004098935751244426, 0.0004681190475821495, 0.0005263445200398564, 0.0005845699924975634, 0.0006427954649552703, 0.000701021053828299, 0.0007592464098706841, 0.0008174719987437129, 0.000875697354786098, 0.0009339229436591268, 0.0009921482997015119, 0.0010503738885745406, 0.0011085994774475694, 0.0011668248334899545, 0.0012250504223629832, 0.0012832757784053683, 0.001341501367278397, 0.0013997267233207822, 0.001457952312193811, 0.0015161779010668397, 0.0015744032571092248, 0.0016326288459822536, 0.0016908542020246387, 0.0017490797908976674, 0.0018073051469400525, 0.0018655307358130813, 0.00192375632468611, 0.0019819815643131733, 0.0020402073860168457, 0.002098432742059231, 0.002156658098101616, 0.002214883454144001, 0.0022731092758476734, 0.0023313346318900585, 0.0023895599879324436]}, "gradients/fc2.bias": {"_type": "histogram", "values": [2.0, 0.0, 0.0, 0.0, 0.0, 0.0, 0.0, 0.0, 0.0, 0.0, 0.0, 0.0, 0.0, 0.0, 0.0, 0.0, 0.0, 0.0, 0.0, 0.0, 0.0, 0.0, 0.0, 1.0, 0.0, 1.0, 0.0, 0.0, 0.0, 0.0, 1.0, 0.0, 0.0, 1.0, 0.0, 0.0, 0.0, 0.0, 0.0, 0.0, 0.0, 0.0, 0.0, 0.0, 0.0, 0.0, 0.0, 0.0, 1.0, 1.0, 1.0, 0.0, 0.0, 0.0, 0.0, 0.0, 0.0, 0.0, 0.0, 0.0, 0.0, 0.0, 0.0, 1.0], "bins": [-0.044918838888406754, -0.0435473769903183, -0.042175911366939545, -0.04080444574356079, -0.039432983845472336, -0.03806152194738388, -0.03669005632400513, -0.03531859070062637, -0.03394712880253792, -0.03257566690444946, -0.03120420128107071, -0.029832737520337105, -0.0284612737596035, -0.027089809998869896, -0.02571834623813629, -0.024346882477402687, -0.022975418716669083, -0.021603954955935478, -0.020232491195201874, -0.01886102743446827, -0.017489563673734665, -0.01611809991300106, -0.014746636152267456, -0.013375174254179, -0.012003708630800247, -0.010632243007421494, -0.009260781109333038, -0.007889319211244583, -0.0065178535878658295, -0.005146387964487076, -0.0037749260663986206, -0.0024034641683101654, -0.0010319985449314117, 0.0003394670784473419, 0.0017109289765357971, 0.0030823908746242523, 0.004453856498003006, 0.00582532212138176, 0.007196784019470215, 0.00856824591755867, 0.009939711540937424, 0.011311177164316177, 0.012682639062404633, 0.014054100960493088, 0.015425566583871841, 0.016797032207250595, 0.018168490380048752, 0.019539956003427505, 0.02091142162680626, 0.022282887250185013, 0.023654352873563766, 0.025025811046361923, 0.026397276669740677, 0.02776874229311943, 0.029140200465917587, 0.03051166608929634, 0.031883131712675095, 0.03325459733605385, 0.0346260629594326, 0.03599752113223076, 0.03736898675560951, 0.038740452378988266, 0.04011191055178642, 0.041483376175165176, 0.04285484179854393]}, "gradients/fc2.weight": {"_type": "histogram", "values": [1.0, 0.0, 0.0, 0.0, 0.0, 0.0, 1.0, 0.0, 0.0, 1.0, 1.0, 1.0, 0.0, 0.0, 0.0, 0.0, 0.0, 0.0, 0.0, 0.0, 0.0, 0.0, 2.0, 1.0, 2.0, 4.0, 2.0, 5.0, 3.0, 3.0, 8.0, 14.0, 14.0, 4791.0, 85.0, 18.0, 11.0, 13.0, 4.0, 2.0, 1.0, 1.0, 2.0, 1.0, 1.0, 1.0, 0.0, 0.0, 1.0, 1.0, 0.0, 1.0, 0.0, 0.0, 0.0, 1.0, 1.0, 0.0, 0.0, 0.0, 0.0, 0.0, 0.0, 1.0], "bins": [-2.6448957920074463, -2.566573143005371, -2.488250255584717, -2.4099273681640625, -2.3316047191619873, -2.253282070159912, -2.174959182739258, -2.0966362953186035, -2.0183136463165283, -1.9399908781051636, -1.8616681098937988, -1.783345341682434, -1.7050225734710693, -1.6266998052597046, -1.5483770370483398, -1.470054268836975, -1.3917315006256104, -1.3134087324142456, -1.2350859642028809, -1.1567631959915161, -1.0784404277801514, -1.0001176595687866, -0.9217948913574219, -0.8434721231460571, -0.7651493549346924, -0.6868265867233276, -0.6085038185119629, -0.5301811695098877, -0.4518582820892334, -0.3735353946685791, -0.2952127456665039, -0.2168900966644287, -0.13856720924377441, -0.06024432182312012, 0.018078327178955078, 0.09640097618103027, 0.17472386360168457, 0.25304675102233887, 0.33136940002441406, 0.40969204902648926, 0.48801493644714355, 0.5663378238677979, 0.644660472869873, 0.7229831218719482, 0.8013060092926025, 0.8796288967132568, 0.957951545715332, 1.0362741947174072, 1.1145970821380615, 1.1929199695587158, 1.271242618560791, 1.3495652675628662, 1.4278881549835205, 1.5062110424041748, 1.584533452987671, 1.6628563404083252, 1.7411792278289795, 1.8195021152496338, 1.897825002670288, 1.9761474132537842, 2.0544703006744385, 2.1327931880950928, 2.211115598678589, 2.289438486099243, 2.3677613735198975]}}
